Language model created by QuickLM on Mon Jul 23 08:32:44 EDT 2018
Copyright (c) 1996-2010 Carnegie Mellon University and Alexander I. Rudnicky

The model is in standard ARPA format, designed by Doug Paul while he was at MITRE.

The code that was used to produce this language model is available in Open Source.
Please visit http://www.speech.cs.cmu.edu/tools/ for more information

The (fixed) discount mass is 0.5. The backoffs are computed using the ratio method.
This model based on a corpus of 12 sentences and 17 words

\data\
ngram 1=17
ngram 2=27
ngram 3=15

\1-grams:
-0.8129 </s> -0.3010
-0.8129 <s> -0.2285
-1.8921 ANGRY -0.2285
-1.8921 ARE -0.2954
-1.8921 DONE -0.2285
-1.8921 EMERGENCY -0.2285
-1.8921 HAPPY -0.2285
-1.8921 HELP -0.2285
-1.8921 MAYBE -0.2285
-1.8921 NO -0.2285
-1.8921 PAINTING -0.2285
-1.8921 RELAXED -0.2285
-1.8921 SAD -0.2285
-1.8921 STOP -0.2285
-1.8921 WHAT -0.2954
-1.8921 YES -0.2285
-1.8921 YOU -0.2954

\2-grams:
-1.3802 <s> ANGRY 0.0000
-1.3802 <s> DONE 0.0000
-1.3802 <s> EMERGENCY 0.0000
-1.3802 <s> HAPPY 0.0000
-1.3802 <s> HELP 0.0000
-1.3802 <s> MAYBE 0.0000
-1.3802 <s> NO 0.0000
-1.3802 <s> RELAXED 0.0000
-1.3802 <s> SAD 0.0000
-1.3802 <s> STOP 0.0000
-1.3802 <s> WHAT 0.0000
-1.3802 <s> YES 0.0000
-0.3010 ANGRY </s> -0.3010
-0.3010 ARE YOU 0.0000
-0.3010 DONE </s> -0.3010
-0.3010 EMERGENCY </s> -0.3010
-0.3010 HAPPY </s> -0.3010
-0.3010 HELP </s> -0.3010
-0.3010 MAYBE </s> -0.3010
-0.3010 NO </s> -0.3010
-0.3010 PAINTING </s> -0.3010
-0.3010 RELAXED </s> -0.3010
-0.3010 SAD </s> -0.3010
-0.3010 STOP </s> -0.3010
-0.3010 WHAT ARE 0.0000
-0.3010 YES </s> -0.3010
-0.3010 YOU PAINTING 0.0000

\3-grams:
-0.3010 <s> ANGRY </s>
-0.3010 <s> DONE </s>
-0.3010 <s> EMERGENCY </s>
-0.3010 <s> HAPPY </s>
-0.3010 <s> HELP </s>
-0.3010 <s> MAYBE </s>
-0.3010 <s> NO </s>
-0.3010 <s> RELAXED </s>
-0.3010 <s> SAD </s>
-0.3010 <s> STOP </s>
-0.3010 <s> WHAT ARE
-0.3010 <s> YES </s>
-0.3010 ARE YOU PAINTING
-0.3010 WHAT ARE YOU
-0.3010 YOU PAINTING </s>

\end\
